digraph Tree {
node [shape=box, style="filled, rounded", color="black", fontname="helvetica"] ;
edge [fontname="helvetica"] ;
0 [label="petal length (cm) <= 2.35\ngini = 0.667\nsamples = 120\nvalue = [40, 41, 39]\nclass = versicolor", fillcolor="#fdfffd"] ;
1 [label="gini = 0.0\nsamples = 40\nvalue = [40, 0, 0]\nclass = setosa", fillcolor="#e58139"] ;
0 -> 1 [labeldistance=2.5, labelangle=45, headlabel="True"] ;
2 [label="petal width (cm) <= 1.75\ngini = 0.5\nsamples = 80\nvalue = [0, 41, 39]\nclass = versicolor", fillcolor="#f5fef9"] ;
0 -> 2 [labeldistance=2.5, labelangle=-45, headlabel="False"] ;
3 [label="petal length (cm) <= 4.95\ngini = 0.162\nsamples = 45\nvalue = [0, 41, 4]\nclass = versicolor", fillcolor="#4ce88d"] ;
2 -> 3 ;
4 [label="sepal length (cm) <= 4.95\ngini = 0.049\nsamples = 40\nvalue = [0, 39, 1]\nclass = versicolor", fillcolor="#3ee684"] ;
3 -> 4 ;
5 [label="gini = 0.0\nsamples = 1\nvalue = [0, 0, 1]\nclass = virginica", fillcolor="#8139e5"] ;
4 -> 5 ;
6 [label="gini = 0.0\nsamples = 39\nvalue = [0, 39, 0]\nclass = versicolor", fillcolor="#39e581"] ;
4 -> 6 ;
7 [label="petal width (cm) <= 1.55\ngini = 0.48\nsamples = 5\nvalue = [0, 2, 3]\nclass = virginica", fillcolor="#d5bdf6"] ;
3 -> 7 ;
8 [label="gini = 0.0\nsamples = 2\nvalue = [0, 0, 2]\nclass = virginica", fillcolor="#8139e5"] ;
7 -> 8 ;
9 [label="petal length (cm) <= 5.45\ngini = 0.444\nsamples = 3\nvalue = [0, 2, 1]\nclass = versicolor", fillcolor="#9cf2c0"] ;
7 -> 9 ;
10 [label="gini = 0.0\nsamples = 2\nvalue = [0, 2, 0]\nclass = versicolor", fillcolor="#39e581"] ;
9 -> 10 ;
11 [label="gini = 0.0\nsamples = 1\nvalue = [0, 0, 1]\nclass = virginica", fillcolor="#8139e5"] ;
9 -> 11 ;
12 [label="gini = 0.0\nsamples = 35\nvalue = [0, 0, 35]\nclass = virginica", fillcolor="#8139e5"] ;
2 -> 12 ;
}